Language model created by QuickLM on Sat Mar 15 04:10:35 EDT 2014
Copyright (c) 1996-2010 Carnegie Mellon University and Alexander I. Rudnicky

The model is in standard ARPA format, designed by Doug Paul while he was at MITRE.

The code that was used to produce this language model is available in Open Source.
Please visit http://www.speech.cs.cmu.edu/tools/ for more information

The (fixed) discount mass is 0.5. The backoffs are computed using the ratio method.
This model based on a corpus of 10 sentences and 14 words

\data\
ngram 1=14
ngram 2=22
ngram 3=12

\1-grams:
-0.8062 </s> -0.3010
-0.8062 <s> -0.2272
-1.8062 ALEX -0.2272
-1.8062 BOB -0.2272
-1.8062 HELLO -0.2272
-1.8062 IS -0.2272
-1.8062 JACK -0.2272
-1.8062 LUCY -0.2272
-1.8062 MY -0.2942
-1.8062 NAME -0.2942
-1.8062 NICK -0.2272
-1.8062 STOP -0.2272
-1.8062 TINKER -0.2272
-1.8062 TOM -0.2272

\2-grams:
-1.3010 <s> ALEX 0.0000
-1.3010 <s> BOB 0.0000
-1.3010 <s> HELLO 0.0000
-1.3010 <s> JACK 0.0000
-1.3010 <s> LUCY 0.0000
-1.3010 <s> MY 0.0000
-1.3010 <s> NICK 0.0000
-1.3010 <s> STOP 0.0000
-1.3010 <s> TINKER 0.0000
-1.3010 <s> TOM 0.0000
-0.3010 ALEX </s> -0.3010
-0.3010 BOB </s> -0.3010
-0.3010 HELLO </s> -0.3010
-0.3010 IS </s> -0.3010
-0.3010 JACK </s> -0.3010
-0.3010 LUCY </s> -0.3010
-0.3010 MY NAME 0.0000
-0.3010 NAME IS 0.0000
-0.3010 NICK </s> -0.3010
-0.3010 STOP </s> -0.3010
-0.3010 TINKER </s> -0.3010
-0.3010 TOM </s> -0.3010

\3-grams:
-0.3010 <s> ALEX </s>
-0.3010 <s> BOB </s>
-0.3010 <s> HELLO </s>
-0.3010 <s> JACK </s>
-0.3010 <s> LUCY </s>
-0.3010 <s> MY NAME
-0.3010 <s> NICK </s>
-0.3010 <s> STOP </s>
-0.3010 <s> TINKER </s>
-0.3010 <s> TOM </s>
-0.3010 MY NAME IS
-0.3010 NAME IS </s>

\end\
